digraph Tree {
node [shape=box, style="filled, rounded", color="black", fontname=helvetica] ;
edge [fontname=helvetica] ;
0 [label=<X<SUB>282</SUB> &le; 0.5<br/>entropy = 0.411<br/>samples = 6744<br/>value = [6188, 556]>, fillcolor="#e78c4b"] ;
1 [label=<X<SUB>844</SUB> &le; 0.5<br/>entropy = 0.293<br/>samples = 5631<br/>value = [5341, 290]>, fillcolor="#e68844"] ;
0 -> 1 [labeldistance=2.5, labelangle=45, headlabel="True"] ;
2 [label=<X<SUB>2</SUB> &le; 0.5<br/>entropy = 0.263<br/>samples = 5463<br/>value = [5219, 244]>, fillcolor="#e68742"] ;
1 -> 2 ;
3 [label=<X<SUB>530</SUB> &le; 0.5<br/>entropy = 0.236<br/>samples = 5113<br/>value = [4915, 198]>, fillcolor="#e68641"] ;
2 -> 3 ;
4 [label=<X<SUB>971</SUB> &le; 0.5<br/>entropy = 0.219<br/>samples = 4902<br/>value = [4730, 172]>, fillcolor="#e68640"] ;
3 -> 4 ;
5 [label=<entropy = 0.186<br/>samples = 4068<br/>value = [3953, 115]>, fillcolor="#e6853f"] ;
4 -> 5 ;
6 [label=<entropy = 0.36<br/>samples = 834<br/>value = [777, 57]>, fillcolor="#e78a48"] ;
4 -> 6 ;
7 [label=<X<SUB>796</SUB> &le; 0.5<br/>entropy = 0.539<br/>samples = 211<br/>value = [185, 26]>, fillcolor="#e99355"] ;
3 -> 7 ;
8 [label=<entropy = 0.371<br/>samples = 196<br/>value = [182, 14]>, fillcolor="#e78b48"] ;
7 -> 8 ;
9 [label=<entropy = 0.722<br/>samples = 15<br/>value = [3, 12]>, fillcolor="#6ab6ec"] ;
7 -> 9 ;
10 [label=<X<SUB>1015</SUB> &le; 0.5<br/>entropy = 0.561<br/>samples = 350<br/>value = [304, 46]>, fillcolor="#e99457"] ;
2 -> 10 ;
11 [label=<X<SUB>615</SUB> &le; 0.5<br/>entropy = 0.375<br/>samples = 235<br/>value = [218, 17]>, fillcolor="#e78b48"] ;
10 -> 11 ;
12 [label=<entropy = 0.254<br/>samples = 211<br/>value = [202, 9]>, fillcolor="#e68742"] ;
11 -> 12 ;
13 [label=<entropy = 0.918<br/>samples = 24<br/>value = [16, 8]>, fillcolor="#f2c09c"] ;
11 -> 13 ;
14 [label=<X<SUB>886</SUB> &le; 0.5<br/>entropy = 0.815<br/>samples = 115<br/>value = [86, 29]>, fillcolor="#eeab7c"] ;
10 -> 14 ;
15 [label=<entropy = 0.757<br/>samples = 110<br/>value = [86, 24]>, fillcolor="#eca470"] ;
14 -> 15 ;
16 [label=<entropy = 0.0<br/>samples = 5<br/>value = [0, 5]>, fillcolor="#399de5"] ;
14 -> 16 ;
17 [label=<X<SUB>662</SUB> &le; 0.5<br/>entropy = 0.847<br/>samples = 168<br/>value = [122, 46]>, fillcolor="#efb184"] ;
1 -> 17 ;
18 [label=<entropy = 0.262<br/>samples = 90<br/>value = [86, 4]>, fillcolor="#e68742"] ;
17 -> 18 ;
19 [label=<X<SUB>16</SUB> &le; 0.5<br/>entropy = 0.996<br/>samples = 78<br/>value = [36, 42]>, fillcolor="#e3f1fb"] ;
17 -> 19 ;
20 [label=<entropy = 0.516<br/>samples = 26<br/>value = [3, 23]>, fillcolor="#53aae8"] ;
19 -> 20 ;
21 [label=<entropy = 0.947<br/>samples = 52<br/>value = [33, 19]>, fillcolor="#f4caab"] ;
19 -> 21 ;
22 [label=<X<SUB>449</SUB> &le; 0.5<br/>entropy = 0.793<br/>samples = 1113<br/>value = [847, 266]>, fillcolor="#eda977"] ;
0 -> 22 [labeldistance=2.5, labelangle=-45, headlabel="False"] ;
23 [label=<X<SUB>37</SUB> &le; 0.5<br/>entropy = 0.717<br/>samples = 1017<br/>value = [816, 201]>, fillcolor="#eba06a"] ;
22 -> 23 ;
24 [label=<X<SUB>939</SUB> &le; 0.5<br/>entropy = 0.537<br/>samples = 799<br/>value = [701, 98]>, fillcolor="#e99355"] ;
23 -> 24 ;
25 [label=<X<SUB>832</SUB> &le; 0.5<br/>entropy = 0.437<br/>samples = 698<br/>value = [635, 63]>, fillcolor="#e88e4d"] ;
24 -> 25 ;
26 [label=<entropy = 0.367<br/>samples = 640<br/>value = [595, 45]>, fillcolor="#e78b48"] ;
25 -> 26 ;
27 [label=<entropy = 0.894<br/>samples = 58<br/>value = [40, 18]>, fillcolor="#f1ba92"] ;
25 -> 27 ;
28 [label=<X<SUB>851</SUB> &le; 0.5<br/>entropy = 0.931<br/>samples = 101<br/>value = [66, 35]>, fillcolor="#f3c4a2"] ;
24 -> 28 ;
29 [label=<entropy = 0.977<br/>samples = 85<br/>value = [50, 35]>, fillcolor="#f7d9c4"] ;
28 -> 29 ;
30 [label=<entropy = 0.0<br/>samples = 16<br/>value = [16, 0]>, fillcolor="#e58139"] ;
28 -> 30 ;
31 [label=<X<SUB>650</SUB> &le; 0.5<br/>entropy = 0.998<br/>samples = 218<br/>value = [115, 103]>, fillcolor="#fcf2ea"] ;
23 -> 31 ;
32 [label=<X<SUB>193</SUB> &le; 0.5<br/>entropy = 0.997<br/>samples = 193<br/>value = [90, 103]>, fillcolor="#e6f3fc"] ;
31 -> 32 ;
33 [label=<entropy = 0.986<br/>samples = 177<br/>value = [76, 101]>, fillcolor="#cee7f9"] ;
32 -> 33 ;
34 [label=<entropy = 0.544<br/>samples = 16<br/>value = [14, 2]>, fillcolor="#e99355"] ;
32 -> 34 ;
35 [label=<entropy = 0.0<br/>samples = 25<br/>value = [25, 0]>, fillcolor="#e58139"] ;
31 -> 35 ;
36 [label=<X<SUB>160</SUB> &le; 0.5<br/>entropy = 0.908<br/>samples = 96<br/>value = [31, 65]>, fillcolor="#97ccf1"] ;
22 -> 36 ;
37 [label=<entropy = 0.619<br/>samples = 13<br/>value = [11, 2]>, fillcolor="#ea985d"] ;
36 -> 37 ;
38 [label=<X<SUB>120</SUB> &le; 0.5<br/>entropy = 0.797<br/>samples = 83<br/>value = [20, 63]>, fillcolor="#78bced"] ;
36 -> 38 ;
39 [label=<entropy = 0.706<br/>samples = 78<br/>value = [15, 63]>, fillcolor="#68b4eb"] ;
38 -> 39 ;
40 [label=<entropy = 0.0<br/>samples = 5<br/>value = [5, 0]>, fillcolor="#e58139"] ;
38 -> 40 ;
}